{"weights": [[[-1.9242478763252742, -0.9427321615799452], [-1.0048083340658809, 0.9668214210853721], [0.5956807154214169, 2.317731563719653], [1.1571731970661698, -0.9712606269072158], [-0.5533883131144751, -0.6312288156983112], [-0.5230860403437677, -0.3289329778218838]], [[-0.9301105188046652, 1.2335268884260477, 1.1096812716746975, 1.4078004320391957, -1.216432195243133, 1.2486075718538547], [-1.027239851947182, -0.5321336560419251, -1.1965099019515644, -0.47474563905414857, 0.196778891397687, -0.8077441927926392], [-1.2850986827889013, -3.1927069232271537, 0.1825424883346866, -2.970371512337383, -0.6505694564300507, 3.0382327996130414], [-2.7718090586037767, 0.6171268529740983, 1.2891490328940913, 0.40199009423103166, -0.9385797868705897, 0.2878634450395964], [-0.3048664248314443, 0.3022660865161578, -0.5789337624702338, 1.5231469748101438, -0.3463238440499203, 0.5791266531229108], [1.9364755106241438, -0.502780849319628, -1.660717227860742, -0.43364737727820496, -0.3874713486369743, 1.110691874855755]], [[2.118353753372937, -1.2414395670785705, -2.062754817363397, -1.882099250975912, 1.5408366901193031, -1.5189917199870346]]], "biases": [[[1.777880628281235], [-0.7933312793992688], [-0.8702190643832102], [-0.6265603849959895], [-0.18120380226874488], [-1.7310362987612555]], [[2.591350247696906], [0.28199591532062357], [-0.2934861432799222], [-1.4987616545158338], [0.030616090265444734], [-0.9655551732631018]], [[-1.5829295721489516]]]}